Language model created by QuickLM on Sat Apr  8 22:37:07 EDT 2017
Copyright (c) 1996-2010 Carnegie Mellon University and Alexander I. Rudnicky

The model is in standard ARPA format, designed by Doug Paul while he was at MITRE.

The code that was used to produce this language model is available in Open Source.
Please visit http://www.speech.cs.cmu.edu/tools/ for more information

The (fixed) discount mass is 0.5. The backoffs are computed using the ratio method.
This model based on a corpus of 1 sentences and 141 words

\data\
ngram 1=141
ngram 2=269
ngram 3=302

\1-grams:
-2.8401 </s> -0.3010
-2.8401 <s> -0.2972
-2.1411 A -0.2966
-2.8401 ACROSS -0.2902
-1.9950 ALL -0.2616
-2.8401 ALMOST -0.2998
-2.8401 AN -0.3004
-1.2960 AND -0.2526
-2.8401 ANOTHER -0.2972
-2.8401 ANYTHING -0.3004
-2.2380 ARE -0.2644
-2.5391 AROUND -0.2778
-2.8401 AWAY -0.3004
-2.8401 BACK -0.2998
-2.5391 BE -0.2960
-2.8401 BECAME -0.2902
-2.5391 BED -0.2991
-2.8401 BEING -0.2991
-2.8401 BEST -0.2947
-2.8401 BLINKING -0.3004
-2.5391 BOAT -0.2772
-2.5391 BUT -0.2844
-2.8401 BY -0.2991
-2.8401 BYE -0.2785
-2.5391 CALLED -0.2979
-2.8401 CAME -0.2972
-2.8401 CEILING -0.3004
-2.5391 CLAWS -0.2991
-2.5391 CRIED -0.2947
-2.5391 DAY -0.2785
-2.8401 DONT -0.3004
-2.3630 EAT -0.2972
-2.8401 EATING -0.3004
-2.3630 EYES -0.2765
-2.8401 FAR -0.3004
-2.5391 FOR -0.2922
-2.8401 FOREST -0.2991
-2.8401 FOUND -0.2972
-2.8401 FRIGHTENED -0.2785
-2.8401 FROM -0.3004
-2.8401 GAVE -0.2991
-2.5391 GNASHED -0.2947
-2.8401 GO -0.3004
-2.5391 GOOD -0.2941
-2.3630 GREW -0.2778
-2.0620 HE -0.2953
-2.1411 HIM -0.2561
-2.0620 HIS -0.2953
-2.8401 HOT -0.3004
-2.8401 HUNG -0.2991
-2.8401 ILL -0.2991
-2.3630 IN -0.2778
-2.3630 INTO -0.2818
-2.8401 IT -0.2991
-2.8401 KIND -0.2785
-2.3630 KING -0.2947
-2.8401 LET -0.2902
-2.8401 LONELY -0.2785
-2.8401 LOVE -0.2991
-2.8401 LOVED -0.2979
-2.5391 MADE -0.2972
-2.8401 MAGIC -0.3004
-1.8859 MAX -0.2623
-2.8401 MAXS -0.2998
-2.8401 MISCHIEF -0.2947
-2.8401 MOST -0.2934
-2.8401 MOTHER -0.2998
-2.2380 NIGHT -0.2637
-2.8401 NO -0.2902
-2.5391 NOW -0.2991
-2.8401 OCEAN -0.3004
-1.8401 OF -0.2864
-2.5391 OFF -0.2960
-2.8401 OH -0.3004
-2.8401 ONCE -0.2785
-2.8401 ONE -0.3004
-2.5391 OUT -0.2947
-2.5391 OVER -0.2979
-2.8401 OWN -0.2998
-2.8401 PLACE -0.2972
-2.8401 PLEASE -0.3004
-2.5391 PRIVATE -0.2998
-2.5391 ROARED -0.2947
-2.5391 ROARS -0.2785
-2.5391 ROLLED -0.2947
-2.5391 ROOM -0.2941
-2.8401 RUMPUS -0.3004
-2.2380 SAID -0.2758
-2.5391 SAILED -0.2991
-2.5391 SENT -0.2864
-2.5391 SHOWED -0.2947
-2.8401 SMELLED -0.2998
-2.3630 SO -0.2745
-2.8401 SOMEONE -0.3004
-2.8401 STARING -0.2991
-2.8401 START -0.2998
-2.8401 STEPPED -0.2991
-2.5391 STILL -0.2778
-2.8401 STOP -0.2953
-2.8401 SUIT -0.2785
-2.5391 SUPPER -0.2778
-2.8401 TAMED -0.3004
-2.5391 TEETH -0.2785
-1.9370 TERRIBLE -0.2953
-2.8401 THAT -0.2998
-1.6097 THE -0.2850
-1.8401 THEIR -0.2941
-2.8401 THEM -0.2991
-2.8401 THEN -0.2966
-2.5391 THEY -0.2991
-2.5391 THING -0.2718
-1.8401 THINGS -0.2657
-2.5391 THROUGH -0.2953
-2.8401 TILL -0.2953
-2.0620 TO -0.2818
-2.8401 TRICK -0.2947
-2.8401 TUMBLED -0.3004
-2.8401 UNTIL -0.2972
-2.3630 UP -0.2979
-2.5391 VERY -0.2979
-2.8401 VINES -0.2785
-2.8401 WAITING -0.2998
-2.8401 WALLS -0.3004
-2.8401 WANTED -0.2972
-2.3630 WAS -0.2979
-2.8401 WAVED -0.2998
-2.8401 WE -0.3004
-2.5391 WEEKS -0.2785
-2.8401 WELL -0.2991
-2.8401 WERE -0.3004
-2.8401 WHEN -0.2972
-2.0620 WHERE -0.2857
-1.7609 WILD -0.2928
-2.3630 WITH -0.2864
-2.3630 WITHOUT -0.2934
-2.8401 WOLF -0.3004
-2.8401 WORE -0.2972
-2.5391 WORLD -0.2928
-2.5391 YEAR -0.2745
-2.8401 YELLOW -0.2991
-2.3630 YOU -0.2972

\2-grams:
-0.3010 <s> WHERE -0.1249
-1.0000 A DAY 0.0000
-1.0000 A FOREST 0.0000
-1.0000 A PRIVATE 0.0000
-0.6990 A YEAR 0.0000
-0.3010 ACROSS THE -0.2747
-1.1461 ALL AND -0.2884
-0.8451 ALL AROUND 0.0000
-1.1461 ALL THEIR -0.2788
-1.1461 ALL THEN 0.0000
-0.8451 ALL WILD -0.0969
-0.3010 ALMOST OVER 0.0000
-0.3010 AN OCEAN 0.0000
-1.8451 AND ALMOST 0.0000
-1.8451 AND AN 0.0000
-1.8451 AND ANOTHER 0.0000
-1.8451 AND CALLED 0.0000
-1.8451 AND DAY 0.0000
-1.5441 AND GNASHED 0.0000
-1.5441 AND GREW 0.0000
-1.8451 AND HE -0.2632
-1.5441 AND IN -0.1249
-1.8451 AND INTO -0.2218
-1.8451 AND IT 0.0000
-1.5441 AND MADE 0.0000
-1.3680 AND MAX -0.1597
-1.8451 AND NOW -0.1761
-1.5441 AND OUT 0.0000
-1.5441 AND ROLLED 0.0000
-1.8451 AND SAILED -0.1761
-1.8451 AND SENT -0.1761
-1.5441 AND SHOWED 0.0000
-1.8451 AND TAMED 0.0000
-1.8451 AND THE -0.2881
-1.8451 AND THEY -0.1761
-1.8451 AND THROUGH -0.1761
-1.8451 AND WANTED 0.0000
-1.8451 AND WAVED 0.0000
-1.8451 AND WHEN 0.0000
-0.3010 ANOTHER HIS -0.2632
-0.3010 ANYTHING THAT 0.0000
-0.9031 ARE AND -0.2948
-0.9031 ARE BUT -0.1761
-0.9031 ARE THE -0.2747
-0.9031 ARE THEY -0.1761
-0.6021 AROUND AND -0.2948
-0.6021 AROUND FROM 0.0000
-0.3010 AWAY ACROSS 0.0000
-0.3010 BACK OVER 0.0000
-0.6021 BE STILL -0.1761
-0.6021 BE WHERE -0.2632
-0.3010 BECAME THE -0.2747
-0.3010 BED WITHOUT -0.1249
-0.3010 BEING KING 0.0000
-0.3010 BEST OF -0.2041
-0.3010 BLINKING ONCE 0.0000
-0.6021 BOAT AND -0.2948
-0.6021 BOAT FOR -0.1761
-0.6021 BUT MAX -0.2762
-0.6021 BUT THE -0.1845
-0.3010 BY WITH -0.2218
-0.3010 BYE AND -0.2948
-0.3010 CALLED HIM -0.2041
-0.3010 CAME TO -0.2632
-0.3010 CEILING HUNG 0.0000
-0.6021 CLAWS BUT -0.1761
-0.6021 CLAWS TILL 0.0000
-0.6021 CRIED MAX -0.2762
-0.6021 CRIED OH 0.0000
-0.3010 DAY AND -0.2820
-0.3010 DONT GO 0.0000
-0.7782 EAT SO -0.1249
-0.4771 EAT YOU -0.1249
-0.3010 EATING ANYTHING 0.0000
-0.4771 EYES AND -0.2884
-0.7782 EYES WITHOUT -0.2218
-0.3010 FAR AWAY 0.0000
-0.6021 FOR HIM -0.2553
-0.6021 FOR MAX -0.2762
-0.3010 FOREST GREW -0.1249
-0.3010 FOUND HIS -0.2632
-0.3010 FRIGHTENED AND -0.2948
-0.3010 FROM FAR 0.0000
-0.3010 GAVE UP -0.2218
-0.3010 GNASHED THEIR -0.0792
-0.3010 GO WELL 0.0000
-0.6021 GOOD BYE 0.0000
-0.6021 GOOD THINGS -0.2788
-0.4771 GREW AND -0.2884
-0.7782 GREW UNTIL 0.0000
-1.0792 HE CAME 0.0000
-1.0792 HE FOUND 0.0000
-1.0792 HE GAVE 0.0000
-1.0792 HE SAILED -0.1761
-1.0792 HE SMELLED 0.0000
-1.0792 HE WAS -0.2218
-1.0000 HIM AND -0.2948
-1.0000 HIM BEST 0.0000
-1.0000 HIM KING 0.0000
-1.0000 HIM THE -0.2881
-1.0000 HIM WILD -0.2632
-1.0792 HIS CEILING 0.0000
-1.0792 HIS MOTHER 0.0000
-1.0792 HIS PRIVATE 0.0000
-1.0792 HIS SUPPER -0.1761
-1.0792 HIS VERY -0.1761
-1.0792 HIS WOLF 0.0000
-0.3010 HOT </s> -0.3010
-0.3010 HUNG WITH -0.2218
-0.3010 ILL EAT -0.1249
-0.4771 IN AND -0.2884
-0.7782 IN MAXS 0.0000
-0.7782 INTO ALL -0.2688
-0.7782 INTO HIS -0.2632
-0.7782 INTO THE -0.2747
-0.3010 IT WAS -0.2218
-0.3010 KIND AND -0.2948
-0.3010 KING OF -0.1761
-0.3010 LET THE -0.1845
-0.3010 LONELY AND -0.2948
-0.3010 LOVE YOU -0.2218
-0.3010 LOVED HIM -0.2553
-0.6021 MADE HIM -0.2553
-0.6021 MADE MISCHIEF 0.0000
-0.3010 MAGIC TRICK 0.0000
-1.2553 MAX AND -0.2948
-1.2553 MAX LET 0.0000
-0.6532 MAX SAID 0.0000
-1.2553 MAX STEPPED 0.0000
-1.2553 MAX THE -0.2881
-1.2553 MAX WORE 0.0000
-0.3010 MAXS ROOM -0.1761
-0.3010 MISCHIEF OF -0.2788
-0.3010 MOST WILD -0.2632
-0.3010 MOTHER CALLED 0.0000
-0.9031 NIGHT AND -0.2948
-0.9031 NIGHT IN -0.2218
-0.9031 NIGHT MAX -0.2762
-0.9031 NIGHT OF -0.2788
-0.3010 NO THE -0.1845
-0.6021 NOW CRIED -0.1761
-0.6021 NOW STOP 0.0000
-0.3010 OCEAN TUMBLED 0.0000
-0.6990 OF ALL -0.1549
-1.3010 OF HIS -0.2632
-1.3010 OF ONE 0.0000
-1.3010 OF STARING 0.0000
-1.0000 OF WEEKS 0.0000
-1.3010 OF WHERE -0.1249
-0.6021 OFF THROUGH -0.1761
-0.6021 OFF TO -0.2218
-0.3010 OH PLEASE 0.0000
-0.3010 ONCE AND -0.2948
-0.3010 ONE KIND 0.0000
-0.3010 OUT OF -0.2553
-0.3010 OVER A -0.2041
-0.3010 OWN ROOM -0.1761
-0.3010 PLACE WHERE -0.1249
-0.3010 PLEASE DONT 0.0000
-0.3010 PRIVATE BOAT 0.0000
-0.3010 ROARED THEIR -0.0792
-0.3010 ROARS AND -0.2884
-0.3010 ROLLED THEIR -0.0792
-0.6021 ROOM A -0.2553
-0.6021 ROOM WHERE -0.2632
-0.3010 RUMPUS START 0.0000
-0.9031 SAID AND -0.2948
-0.9031 SAID BE -0.1761
-0.9031 SAID ILL 0.0000
-0.9031 SAID NO 0.0000
-0.6021 SAILED BACK 0.0000
-0.6021 SAILED OFF -0.1761
-0.6021 SENT THE -0.1845
-0.6021 SENT TO -0.2218
-0.3010 SHOWED THEIR -0.0792
-0.3010 SMELLED GOOD -0.1761
-0.7782 SO AND -0.2820
-0.4771 SO HE -0.2218
-0.3010 SOMEONE LOVED 0.0000
-0.3010 STARING INTO -0.2218
-0.3010 START NOW -0.1761
-0.3010 STEPPED INTO -0.2218
-0.6021 STILL AND -0.2948
-0.6021 STILL HOT 0.0000
-0.3010 STOP MAX -0.1919
-0.3010 SUIT AND -0.2884
-0.6021 SUPPER AND -0.2820
-0.6021 SUPPER WAITING 0.0000
-0.3010 TAMED THEM 0.0000
-0.3010 TEETH AND -0.2884
-0.9031 TERRIBLE CLAWS 0.0000
-0.9031 TERRIBLE EYES -0.1249
-0.9031 TERRIBLE ROARS 0.0000
-0.9031 TERRIBLE TEETH 0.0000
-0.3010 THAT VERY -0.1761
-1.5315 THE KING 0.0000
-1.5315 THE MAGIC 0.0000
-1.5315 THE MOST 0.0000
-1.2304 THE NIGHT -0.1761
-1.5315 THE PLACE 0.0000
-1.5315 THE WALLS 0.0000
-0.6284 THE WILD -0.0669
-1.2304 THE WORLD 0.0000
-1.3010 THEIR SUPPER -0.1761
-0.3979 THEIR TERRIBLE 0.0000
-1.3010 THEIR YELLOW 0.0000
-0.3010 THEM WITH -0.2218
-0.3010 THEN ALL -0.2341
-0.6021 THEY ROARED 0.0000
-0.6021 THEY WERE 0.0000
-0.6021 THING AND -0.2820
-0.6021 THING OF -0.2041
-1.3010 THINGS AND -0.2948
-0.6990 THINGS ARE 0.0000
-1.3010 THINGS CRIED -0.1761
-1.3010 THINGS OFF -0.1761
-1.3010 THINGS ROARED 0.0000
-1.3010 THINGS TO -0.2632
-1.3010 THINGS WAS -0.2218
-0.6021 THROUGH A -0.2553
-0.6021 THROUGH NIGHT -0.2430
-0.3010 TILL MAX -0.1919
-1.0792 TO BE -0.1761
-0.7782 TO BED 0.0000
-1.0792 TO EAT -0.2218
-1.0792 TO THE -0.2881
-1.0792 TO WHERE -0.1249
-0.3010 TRICK OF -0.2788
-0.3010 TUMBLED BY 0.0000
-0.3010 UNTIL HIS -0.2632
-0.7782 UP BEING 0.0000
-0.7782 UP SO -0.1249
-0.7782 UP WE 0.0000
-0.6021 VERY NIGHT -0.2430
-0.6021 VERY OWN 0.0000
-0.3010 VINES AND -0.2948
-0.3010 WAITING FOR -0.1761
-0.3010 WALLS BECAME 0.0000
-0.3010 WANTED TO -0.2632
-0.7782 WAS LONELY 0.0000
-0.7782 WAS SENT -0.1761
-0.7782 WAS STILL -0.1761
-0.3010 WAVED GOOD -0.1761
-0.3010 WE LOVE 0.0000
-0.3010 WEEKS AND -0.2884
-0.3010 WELL EAT -0.1249
-0.3010 WERE FRIGHTENED 0.0000
-0.3010 WHEN HE -0.2632
-1.0792 WHERE HE -0.2632
-1.0792 WHERE SOMEONE 0.0000
-0.4771 WHERE THE -0.1845
-1.3802 WILD RUMPUS 0.0000
-1.0792 WILD THING 0.0000
-0.4260 WILD THINGS -0.0414
-0.7782 WITH A -0.2553
-0.7782 WITH THE -0.2881
-0.7782 WITH VINES 0.0000
-0.7782 WITHOUT BLINKING 0.0000
-0.7782 WITHOUT EATING 0.0000
-0.7782 WITHOUT THEIR -0.2788
-0.3010 WOLF SUIT 0.0000
-0.3010 WORE HIS -0.2632
-0.6021 WORLD ALL -0.2341
-0.6021 WORLD HE -0.2632
-0.6021 YEAR AND -0.2884
-0.6021 YEAR TO -0.2632
-0.3010 YELLOW EYES -0.2218
-0.7782 YOU SO -0.2218
-0.4771 YOU UP -0.1249

\3-grams:
-0.3010 <s> WHERE THE
-0.3010 A DAY AND
-0.3010 A FOREST GREW
-0.3010 A PRIVATE BOAT
-0.6021 A YEAR AND
-0.6021 A YEAR TO
-0.3010 ACROSS THE WORLD
-0.3010 ALL AND MADE
-0.6021 ALL AROUND AND
-0.6021 ALL AROUND FROM
-0.3010 ALL THEIR YELLOW
-0.3010 ALL THEN ALL
-0.3010 ALL WILD THINGS
-0.3010 ALMOST OVER A
-0.3010 AN OCEAN TUMBLED
-0.3010 AND ALMOST OVER
-0.3010 AND AN OCEAN
-0.3010 AND ANOTHER HIS
-0.3010 AND CALLED HIM
-0.3010 AND DAY AND
-0.3010 AND GNASHED THEIR
-0.6021 AND GREW AND
-0.6021 AND GREW UNTIL
-0.3010 AND HE SAILED
-0.3010 AND IN AND
-0.3010 AND INTO THE
-0.3010 AND IT WAS
-0.6021 AND MADE HIM
-0.6021 AND MADE MISCHIEF
-0.4771 AND MAX SAID
-0.7782 AND MAX THE
-0.3010 AND NOW CRIED
-0.3010 AND OUT OF
-0.3010 AND ROLLED THEIR
-0.3010 AND SAILED BACK
-0.3010 AND SENT THE
-0.3010 AND SHOWED THEIR
-0.3010 AND TAMED THEM
-0.3010 AND THE WALLS
-0.3010 AND THEY WERE
-0.3010 AND THROUGH A
-0.3010 AND WANTED TO
-0.3010 AND WAVED GOOD
-0.3010 AND WHEN HE
-0.3010 ANOTHER HIS MOTHER
-0.3010 ANYTHING THAT VERY
-0.3010 ARE AND WHEN
-0.3010 ARE BUT THE
-0.3010 ARE THE NIGHT
-0.3010 ARE THEY ROARED
-0.3010 AROUND AND AN
-0.3010 AROUND FROM FAR
-0.3010 AWAY ACROSS THE
-0.3010 BACK OVER A
-0.3010 BE STILL AND
-0.3010 BE WHERE SOMEONE
-0.3010 BECAME THE WORLD
-0.6021 BED WITHOUT EATING
-0.6021 BED WITHOUT THEIR
-0.3010 BEING KING OF
-0.3010 BEST OF ALL
-0.3010 BLINKING ONCE AND
-0.3010 BOAT AND WAVED
-0.3010 BOAT FOR MAX
-0.3010 BUT MAX STEPPED
-0.3010 BUT THE WILD
-0.3010 BY WITH A
-0.3010 BYE AND SAILED
-0.6021 CALLED HIM THE
-0.6021 CALLED HIM WILD
-0.3010 CAME TO THE
-0.3010 CEILING HUNG WITH
-0.3010 CLAWS BUT MAX
-0.3010 CLAWS TILL MAX
-0.3010 CRIED MAX LET
-0.3010 CRIED OH PLEASE
-0.6021 DAY AND IN
-0.6021 DAY AND INTO
-0.3010 DONT GO WELL
-0.3010 EAT SO HE
-0.3010 EAT YOU UP
-0.3010 EATING ANYTHING THAT
-0.3010 EYES AND SHOWED
-0.3010 EYES WITHOUT BLINKING
-0.3010 FAR AWAY ACROSS
-0.3010 FOR HIM AND
-0.3010 FOR MAX AND
-0.3010 FOREST GREW AND
-0.3010 FOUND HIS SUPPER
-0.3010 FRIGHTENED AND CALLED
-0.3010 FROM FAR AWAY
-0.3010 GAVE UP BEING
-0.3010 GNASHED THEIR TERRIBLE
-0.3010 GO WELL EAT
-0.3010 GOOD BYE AND
-0.3010 GOOD THINGS TO
-0.3010 GREW AND GREW
-0.3010 GREW UNTIL HIS
-0.3010 HE CAME TO
-0.3010 HE FOUND HIS
-0.3010 HE GAVE UP
-0.3010 HE SAILED OFF
-0.3010 HE SMELLED GOOD
-0.3010 HE WAS SENT
-0.3010 HIM AND IT
-0.3010 HIM BEST OF
-0.3010 HIM KING OF
-0.3010 HIM THE MOST
-0.3010 HIM WILD THING
-0.3010 HIS CEILING HUNG
-0.3010 HIS MOTHER CALLED
-0.3010 HIS PRIVATE BOAT
-0.3010 HIS SUPPER WAITING
-0.3010 HIS VERY OWN
-0.3010 HIS WOLF SUIT
-0.3010 HUNG WITH VINES
-0.3010 ILL EAT YOU
-0.3010 IN AND OUT
-0.3010 IN MAXS ROOM
-0.3010 INTO ALL THEIR
-0.3010 INTO HIS PRIVATE
-0.3010 INTO THE NIGHT
-0.3010 IT WAS STILL
-0.3010 KIND AND ANOTHER
-0.4771 KING OF ALL
-0.7782 KING OF WHERE
-0.3010 LET THE WILD
-0.3010 LONELY AND WANTED
-0.3010 LOVE YOU SO
-0.3010 LOVED HIM BEST
-0.3010 MADE HIM KING
-0.3010 MADE MISCHIEF OF
-0.3010 MAGIC TRICK OF
-0.3010 MAX AND HE
-0.3010 MAX LET THE
-0.9031 MAX SAID AND
-0.9031 MAX SAID BE
-0.9031 MAX SAID ILL
-0.9031 MAX SAID NO
-0.3010 MAX STEPPED INTO
-0.3010 MAX THE KING
-0.3010 MAX WORE HIS
-0.3010 MAXS ROOM A
-0.3010 MISCHIEF OF ONE
-0.3010 MOST WILD THING
-0.3010 MOTHER CALLED HIM
-0.3010 NIGHT AND DAY
-0.3010 NIGHT IN MAXS
-0.3010 NIGHT MAX WORE
-0.3010 NIGHT OF HIS
-0.3010 NO THE WILD
-0.3010 NOW CRIED MAX
-0.3010 NOW STOP MAX
-0.3010 OCEAN TUMBLED BY
-0.9031 OF ALL AND
-0.9031 OF ALL THEN
-0.6021 OF ALL WILD
-0.3010 OF HIS VERY
-0.3010 OF ONE KIND
-0.3010 OF STARING INTO
-0.3010 OF WEEKS AND
-0.3010 OF WHERE THE
-0.3010 OFF THROUGH NIGHT
-0.3010 OFF TO BED
-0.3010 OH PLEASE DONT
-0.3010 ONCE AND THEY
-0.3010 ONE KIND AND
-0.3010 OUT OF WEEKS
-0.3010 OVER A YEAR
-0.3010 OWN ROOM WHERE
-0.3010 PLACE WHERE THE
-0.3010 PLEASE DONT GO
-0.6021 PRIVATE BOAT AND
-0.6021 PRIVATE BOAT FOR
-0.3010 ROARED THEIR TERRIBLE
-0.3010 ROARS AND GNASHED
-0.3010 ROLLED THEIR TERRIBLE
-0.3010 ROOM A FOREST
-0.3010 ROOM WHERE HE
-0.3010 RUMPUS START NOW
-0.3010 SAID AND SENT
-0.3010 SAID BE STILL
-0.3010 SAID ILL EAT
-0.3010 SAID NO THE
-0.3010 SAILED BACK OVER
-0.3010 SAILED OFF THROUGH
-0.3010 SENT THE WILD
-0.3010 SENT TO BED
-0.3010 SHOWED THEIR TERRIBLE
-0.3010 SMELLED GOOD THINGS
-0.3010 SO AND MAX
-0.6021 SO HE GAVE
-0.6021 SO HE WAS
-0.3010 SOMEONE LOVED HIM
-0.3010 STARING INTO ALL
-0.3010 START NOW STOP
-0.3010 STEPPED INTO HIS
-0.3010 STILL AND TAMED
-0.3010 STILL HOT </s>
-0.3010 STOP MAX SAID
-0.3010 SUIT AND MADE
-0.3010 SUPPER AND MAX
-0.3010 SUPPER WAITING FOR
-0.3010 TAMED THEM WITH
-0.3010 TEETH AND ROLLED
-0.6021 TERRIBLE CLAWS BUT
-0.6021 TERRIBLE CLAWS TILL
-0.3010 TERRIBLE EYES AND
-0.3010 TERRIBLE ROARS AND
-0.3010 TERRIBLE TEETH AND
-0.3010 THAT VERY NIGHT
-0.3010 THE KING OF
-0.3010 THE MAGIC TRICK
-0.3010 THE MOST WILD
-0.6021 THE NIGHT MAX
-0.6021 THE NIGHT OF
-0.3010 THE PLACE WHERE
-0.3010 THE WALLS BECAME
-1.2041 THE WILD RUMPUS
-0.3590 THE WILD THINGS
-0.6021 THE WORLD ALL
-0.6021 THE WORLD HE
-0.3010 THEIR SUPPER AND
-0.9031 THEIR TERRIBLE CLAWS
-0.9031 THEIR TERRIBLE EYES
-0.9031 THEIR TERRIBLE ROARS
-0.9031 THEIR TERRIBLE TEETH
-0.3010 THEIR YELLOW EYES
-0.3010 THEM WITH THE
-0.3010 THEN ALL AROUND
-0.3010 THEY ROARED THEIR
-0.3010 THEY WERE FRIGHTENED
-0.3010 THING AND MAX
-0.3010 THING OF ALL
-0.3010 THINGS AND NOW
-0.9031 THINGS ARE AND
-0.9031 THINGS ARE BUT
-0.9031 THINGS ARE THE
-0.9031 THINGS ARE THEY
-0.3010 THINGS CRIED OH
-0.3010 THINGS OFF TO
-0.3010 THINGS ROARED THEIR
-0.3010 THINGS TO EAT
-0.3010 THINGS WAS LONELY
-0.3010 THROUGH A DAY
-0.3010 THROUGH NIGHT AND
-0.3010 TILL MAX SAID
-0.3010 TO BE WHERE
-0.3010 TO BED WITHOUT
-0.3010 TO EAT SO
-0.3010 TO THE PLACE
-0.3010 TO WHERE THE
-0.3010 TRICK OF STARING
-0.3010 TUMBLED BY WITH
-0.3010 UNTIL HIS CEILING
-0.3010 UP BEING KING
-0.3010 UP SO HE
-0.3010 UP WE LOVE
-0.3010 VERY NIGHT IN
-0.3010 VERY OWN ROOM
-0.3010 VINES AND THE
-0.3010 WAITING FOR HIM
-0.3010 WALLS BECAME THE
-0.3010 WANTED TO BE
-0.3010 WAS LONELY AND
-0.3010 WAS SENT TO
-0.3010 WAS STILL HOT
-0.3010 WAVED GOOD BYE
-0.3010 WE LOVE YOU
-0.6021 WEEKS AND ALMOST
-0.6021 WEEKS AND THROUGH
-0.3010 WELL EAT YOU
-0.3010 WERE FRIGHTENED AND
-0.3010 WHEN HE CAME
-0.3010 WHERE HE FOUND
-0.3010 WHERE SOMEONE LOVED
-0.3010 WHERE THE WILD
-0.3010 WILD RUMPUS START
-0.6021 WILD THING AND
-0.6021 WILD THING OF
-1.2553 WILD THINGS AND
-0.6532 WILD THINGS ARE
-1.2553 WILD THINGS CRIED
-1.2553 WILD THINGS OFF
-1.2553 WILD THINGS ROARED
-1.2553 WILD THINGS WAS
-0.3010 WITH A PRIVATE
-0.3010 WITH THE MAGIC
-0.3010 WITH VINES AND
-0.3010 WITHOUT BLINKING ONCE
-0.3010 WITHOUT EATING ANYTHING
-0.3010 WITHOUT THEIR SUPPER
-0.3010 WOLF SUIT AND
-0.3010 WORE HIS WOLF
-0.3010 WORLD ALL AROUND
-0.3010 WORLD HE SMELLED
-0.3010 YEAR AND IN
-0.3010 YEAR TO WHERE
-0.3010 YELLOW EYES WITHOUT
-0.3010 YOU SO AND
-0.6021 YOU UP SO
-0.6021 YOU UP WE

\end\
